language -0.196128 -0.401432 -0.0985945 -0.384439 0.0210881 -0.0297705 -0.340681 -0.311202 0.244989 -0.147301 0.0532116 0.142827 0.243783 0.276897 -0.0569484 0.546433 0.00265286 0.319382 -0.437037 0.044321 -0.202509 -0.340106 0.33826 -0.174863 -0.351992 -0.443185 -0.522924 0.511587 -0.544428 0.0169718 -0.16369 -0.300434 -0.20211 0.139802 0.279743 0.196982 -0.546257 0.076472 -0.36775 0.0834001 0.404877 0.281858 0.270044 0.669418 0.1602 0.0432501 -0.276297 -0.806346 -0.0528151 0.107104
a 0.0735826 -0.0457522 0.289222 -0.0390158 0.321752 0.201181 -0.174424 0.251462 0.125948 0.542212 -0.0262401 -0.833358 0.257381 -0.120856 0.49523 -0.51189 0.122551 -0.0685316 0.676547 -0.303866 -0.691488 -0.17629 0.261215 0.605334 0.421816 0.192813 0.551782 0.323039 0.192401 -0.260824 0.0131333 -0.267342 0.584742 -0.0518796 0.189358 -0.0130864 -0.289996 0.114431 -0.0877911 -0.419285 0.433245 -0.216078 -0.460971 -0.207332 -0.0839081 0.0122574 0.297482 0.0754195 -0.202342 -0.223528
artificial -0.285665 -0.503108 0.516102 0.187809 0.0988573 0.0220951 -0.0854967 0.237907 -0.0693798 0.158577 -0.1384 -0.666822 0.272172 0.138614 0.1258 -0.303611 0.581169 -0.240272 8.32621e-05 0.00200253 0.31128 -0.0923446 0.585923 0.381906 0.170054 0.0869862 0.923908 0.104774 0.284537 -0.0278501 -0.20277 -0.0745443 0.430631 -0.344915 0.0152831 0.467141 -0.2651 -0.504736 -0.101505 -0.396893 0.599197 -0.197577 -0.0741492 0.0860799 -0.0464987 -0.334707 0.0694131 0.117126 -0.446925 0.316737
of 0.0286636 0.453178 0.0965001 -0.045911 -0.0697653 -0.396368 0.0283909 0.128004 -0.182065 0.320197 0.17012 -0.496334 -0.0723663 0.614573 -0.0166173 -0.381566 0.247497 -0.349626 0.110364 -0.0703977 0.249126 -0.133192 0.309052 0.109621 -0.219683 0.231388 0.747464 -0.353767 0.246948 0.313867 0.422153 -0.239853 0.733685 -0.191849 0.481099 0.642049 0.202455 -0.546754 0.0718592 -0.14963 0.147737 0.249875 0.563721 -0.253546 -0.244845 -0.725145 0.166786 0.281342 0.104014 -0.188672
deep 0.2579 -0.0251315 -0.148871 0.501419 -0.327555 0.4829 0.157219 0.250535 -0.5274 0.45276 0.172381 -0.165973 -0.584067 -0.173062 0.740085 -0.418091 -0.529144 0.372361 0.408787 -0.0257186 0.245001 0.119726 -0.0650287 0.411946 0.62929 0.108686 -0.184677 -0.272484 -0.123737 -0.132532 0.435143 0.431258 0.180124 0.416195 0.13103 -0.409694 -0.075909 0.476521 -0.0813925 -0.335053 -0.0780104 -0.358352 -0.409364 -0.624537 -0.0426029 -0.0264841 0.494188 -0.76335 0.0502247 -0.615408
intelligence 0.277387 -0.0163029 0.933605 -0.158557 0.212671 -0.0052797 0.177628 0.14515 -0.247048 0.0393613 -0.264519 -0.0269833 0.577263 0.0758947 -0.060623 0.160346 0.73455 0.0674099 0.303323 -0.237005 -0.0506438 0.168158 -0.0885658 0.699197 -0.589641 -0.544667 0.693708 0.0878203 -0.0108748 -0.273235 -0.27601 -0.16062 0.29883 -0.233778 -0.180671 -0.0391562 0.211261 -0.306653 0.29786 0.358968 0.235277 -0.259286 0.239323 -0.494697 -0.338979 -0.449439 -0.359749 -0.0940119 -0.0581368 -0.486387
can 0.305293 0.128842 -0.028571 0.352869 0.0415695 0.479088 0.167081 0.309368 0.11253 0.0314243 0.521823 -0.0136384 -0.656238 -0.160024 0.480189 -0.492739 -0.447007 0.154784 0.334187 0.407431 0.402922 -0.0159648 0.0815774 -0.127682 0.540674 0.286292 -0.210764 -0.383626 -0.450896 -0.219241 0.120519 0.41781 -0.499271 0.282787 -0.0680849 -0.136577 -0.204067 0.355666 0.209938 -0.0242441 -0.00178959 -0.562776 -0.107838 -0.0662163 0.0926437 -0.303992 0.0827862 -0.394193 0.31212 -0.820545
processing -0.445919 -0.430054 -0.503874 0.278234 -0.414666 0.00903754 -0.602403 -0.365421 -0.452424 -0.654488 -0.0396889 0.183482 0.247467 0.266089 0.397028 0.0149908 -0.12044 0.0961176 -0.140326 0.245676 -0.188428 0.190206 0.120219 0.729401 0.347922 -0.321742 -0.403941 0.368204 0.202648 0.000136081 -0.229421 -0.340273 -0.567286 -0.709681 0.20151 0.177594 -0.212176 0.412869 -0.17172 -0.289815 0.225014 -0.260326 0.234814 0.38222 -0.11956 -0.139151 -0.587032 0.171396 0.32056 0.369154
subset 0.149916 0.413218 0.468032 -0.171462 0.472507 -0.488586 -0.112161 0.135475 -0.463295 0.449546 0.230979 0.0164073 0.288564 0.396308 0.46707 -0.480098 0.331191 -0.0586445 0.647763 -0.305417 -0.461157 0.143063 -0.0944489 0.393068 -0.660977 0.0206744 0.268169 0.349129 -0.00806873 -0.12995 -0.0071959 -0.204306 0.861468 0.277016 0.127615 0.0509269 0.178663 -0.554028 0.434673 0.0775641 -0.0449391 -0.0883594 0.00278989 -0.40018 -0.191281 -0.0841658 -0.128123 0.286212 0.0995151 -0.309941
complex 0.227461 -0.079168 -0.355935 -0.252304 -0.110222 -0.184137 -0.164442 0.259722 0.104054 -0.112536 -0.257326 0.432345 -0.369424 -0.918707 0.611464 -0.083187 -0.268736 -0.071177 -0.550509 0.543568 0.0122748 0.508274 -0.243816 -0.572035 0.131121 0.195155 0.365408 0.243982 0.0404641 -0.194605 -0.105465 -0.085074 -0.48119 0.255026 0.468353 0.17283 -0.397025 -0.130872 0.356009 -0.0765044 -0.138224 -0.0934977 0.310757 -0.133306 0.204648 -0.122963 0.190963 0.511435 0.223779 -0.244558
learning -0.204482 0.286687 -0.453868 0.23038 -0.122091 -0.483327 -0.182327 0.0577969 -0.673332 0.27306 0.283213 0.325373 -0.0786138 -0.359382 0.624111 -0.306148 -0.102687 0.392081 0.386638 -0.548317 0.0762491 -0.0207749 -0.044949 -0.0962666 -0.157903 0.0650232 -0.789515 0.285908 -0.0590763 0.150862 0.353245 0.295927 0.377487 0.52422 -0.0428271 -0.159409 -0.338274 -0.291284 0.251695 0.014652 -0.296121 0.265472 -0.28672 -0.468797 0.0278722 0.182811 0.32667 0.305707 0.358607 0.0955386
learn -0.109964 0.152686 0.0944128 0.600124 0.0603999 -0.548559 0.14746 -0.021205 -0.264611 0.00249006 -0.00877044 0.467543 -0.632229 -0.387352 0.721265 0.253739 -0.222445 0.425431 -0.130879 0.296795 0.17223 0.0804185 -0.0432125 -0.225053 0.0707533 0.0526201 -0.265098 0.0923133 -0.629168 -0.247259 0.0306848 0.606548 -0.482716 0.432031 0.134453 -0.31265 -0.252626 0.153901 0.123154 -0.343225 -0.190299 0.0614504 -0.507744 -0.242961 0.104085 -0.167986 0.496057 0.622827 0.0656682 -0.390248
from -0.00617688 0.33316 0.312471 0.735708 0.403797 -0.261449 0.0891934 -0.296274 0.474429 0.133255 -0.0473052 0.248904 -0.23188 0.00284477 0.123108 0.238816 0.037557 -0.0435128 -0.221784 0.734664 -0.1479 -0.0979627 0.296986 -0.663045 0.0134687 0.168472 0.105561 0.254436 -0.791055 -0.366206 -0.16839 0.342229 -0.645378 0.0156793 -0.0642848 -0.151305 0.195703 0.423168 -0.11301 -0.241206 -0.238953 0.203176 -0.354524 0.282472 -0.286003 -0.0273124 0.283786 0.758035 -0.154492 -0.301909
models 0.0456427 0.0909493 -0.533938 -0.363142 0.113771 0.353669 -0.179302 0.419112 0.280616 0.0797577 0.0758936 0.326326 -0.440146 -1.14539 0.319693 -0.468689 -0.231871 0.113888 0.0787657 -0.49168 0.0962616 0.2192 0.0210732 -0.193288 0.472871 -0.100298 -0.364272 -0.25428 0.306918 -0.0847739 0.175971 -0.0701591 -0.178125 0.573729 0.209099 0.395697 -0.650778 0.2024 0.258898 0.354542 0.0674033 -0.396852 0.233649 -0.509638 -0.0520717 -0.200183 -0.017649 0.257065 0.343287 -0.484175
machine 0.312194 0.297833 0.161719 -0.03163 0.48914 0.503011 0.00916873 0.0222372 -0.128613 0.583503 0.00922834 -0.44187 -0.0587391 -0.300298 0.652946 -0.642908 -0.0395116 0.273875 0.6986 -0.717215 -1.01171 -0.185652 -0.0524956 0.201765 0.436736 0.275835 -0.342913 0.107469 -0.218706 -0.183715 0.119014 -0.1209 0.481189 0.329015 0.016457 -0.0725403 -0.1457 0.369286 -0.024023 -0.165691 0.227537 -0.391525 -0.575502 -0.524208 -0.132013 0.381462 0.155642 0.0269979 0.323657 -0.60433
to -0.394258 -0.824821 0.0305863 0.163829 -0.384097 0.221971 -0.149329 0.193544 -0.488148 -0.119061 -0.374204 -0.310269 0.118838 0.178874 -0.365342 -0.0378764 0.577936 -0.229495 -0.380697 -0.0679104 0.256658 0.0999947 0.591089 -0.23577 -0.201211 -0.0313753 0.0769693 -0.319428 -0.241718 0.507871 -0.399162 0.0466734 0.0447313 -0.147576 -0.124041 0.581941 -0.0884024 -0.00661422 -0.0587833 0.00221898 0.279895 -0.152997 0.0790789 0.30239 -0.157382 -0.330706 -0.194854 -0.344342 -0.268986 0.2398
data 0.33893 -0.265513 -0.132415 0.0181589 -0.285984 -0.228763 -0.087227 -0.0259135 -0.0688106 0.0585092 -0.460537 0.153774 -0.0998281 -0.468301 0.516248 0.301771 -0.200666 -0.0987504 -0.60823 1.01799 -0.274476 0.496033 -0.270401 -0.634888 0.0238325 0.406763 0.809108 0.563286 -0.120038 -0.253041 -0.0350466 -0.0961181 -0.295877 -0.0218761 0.508987 -0.066176 -0.0820569 -0.088204 0.31528 -0.375517 -0.493417 0.0907604 0.13437 0.300567 0.263734 0.241739 0.171855 0.567414 0.0440484 -0.0927652
enables 0.294881 0.163264 -0.0355598 -0.426904 -0.721986 0.364563 -0.24537 -0.526513 -0.368573 -0.388917 0.0455434 0.0764073 0.470803 0.28061 0.00701676 0.388495 0.229078 0.0228352 0.060938 0.0711041 -0.281161 -0.201968 -0.307911 0.745329 0.17273 -0.336665 0.0728361 -0.0209655 -0.488383 0.13609 -0.552997 -0.267847 -0.257654 -0.54667 0.148098 -0.0354686 0.199497 0.186255 -0.0677739 0.674894 -0.40965 0.281197 0.321356 -0.346575 0.201938 -0.0900947 -0.297298 0.412712 0.163359 0.0213606
understand 0.390112 -0.460489 -0.141787 -0.543789 -0.197071 0.333252 0.167917 -0.638537 -0.225571 -0.730874 -0.0769055 0.0998914 0.284189 0.573121 0.0250749 0.74905 0.601607 0.213947 -0.00282308 0.182733 -0.0103057 0.27989 0.212543 0.454465 0.0896905 -0.0147428 -0.233633 -0.327428 -0.156093 0.395149 -0.0163604 -0.343592 -0.633482 -0.453101 0.0779761 0.0142541 -0.324073 -0.287078 0.491589 0.347936 -0.257388 0.161665 0.063125 -0.285407 0.00698574 -0.178082 -0.506676 0.152529 -0.0249584 -0.103782
by 0.305414 0.0165078 0.11693 0.253873 0.345099 -0.126382 0.610323 0.177166 0.653237 -0.0930526 0.00460459 0.526451 -0.0232439 0.272916 -0.292837 0.339776 -0.711732 -0.23819 -0.102811 -0.206491 0.0500113 0.0770949 -0.169198 0.0365531 0.150102 0.242622 0.304588 -0.218355 0.423322 0.127142 0.403415 0.272553 0.353849 -0.0428494 -0.246247 0.0769315 0.203541 0.101975 -0.377462 -0.0126939 0.434276 0.0598455 -0.0418662 0.108893 -0.0751828 0.350012 -0.318426 0.147278 0.243509 0.704483
intelligent 0.164374 0.164056 0.178228 -0.0489631 -0.244248 0.157083 0.381086 -0.233894 0.075974 -0.205611 -0.57627 0.141895 -0.025075 -0.120714 -0.468467 0.228422 0.422355 0.620611 -0.420248 0.175149 0.457797 -0.500544 -0.0213179 0.253056 -0.701102 0.0292286 -0.185986 -0.652482 0.151705 0.0144371 -0.407863 0.379738 0.162162 -0.450181 -0.431957 -0.199281 0.539803 0.201647 -0.0175067 0.0117572 -0.932754 -0.161108 -0.0120995 -0.605464 0.0785739 -0.275607 0.0578174 -0.0501369 -0.243435 -0.159477
inspired -0.439836 -0.102359 0.000981486 -0.423055 0.14009 -0.0374862 0.0437104 -0.485622 0.590299 0.280123 0.285887 -0.00223802 -0.0984606 -0.37897 -0.621023 0.500144 -0.166543 -0.36798 0.256696 -0.26428 0.176178 0.194501 -0.56765 -0.0933623 0.362335 0.137827 0.0845531 -0.151673 0.439231 0.128738 -0.210967 0.26954 0.0227068 0.199952 0.0579019 -0.247016 0.608578 -0.215583 -0.438313 -0.0904616 0.00350249 -0.186237 -0.500533 0.458648 0.169733 0.215865 -0.0877669 -0.0631454 0.0458219 0.227203
human 0.200105 -0.241945 0.18446 -0.317581 0.1443 0.167049 0.68132 -0.0180886 -0.190923 -0.849141 -0.816534 0.143999 0.407425 0.491468 0.141612 0.3253 0.0199506 0.431763 0.0289708 0.404619 -0.536488 0.123301 0.0233786 0.231452 0.367377 -0.0883161 -0.481253 0.156066 0.142907 -0.254708 -0.341683 0.136926 -0.449777 -0.479709 -0.222152 0.411928 0.271317 0.252922 0.296595 0.572935 -0.0263541 0.432068 0.466609 -0.226016 0.0813748 -0.577435 -0.162139 -0.558082 -0.247359 -0.209984
machines -0.422334 -0.423276 -0.100319 0.184191 -0.596367 0.315094 0.106053 0.411857 -0.55187 0.0632209 -0.23973 -0.0612836 0.162748 0.0736178 -0.908574 -0.612257 0.32991 -0.0369812 -0.342637 -0.0468916 0.209169 -0.0632153 0.240356 -0.257778 -0.68522 0.214717 -0.301085 -0.685318 -0.588933 0.726443 -0.134462 0.296297 0.199291 -0.0439349 -0.316753 0.18696 0.480002 0.354269 -0.0562684 0.204326 -0.42795 -0.158892 0.036897 0.0538803 -0.359905 -0.0097451 0.262281 -0.389865 -0.41977 0.122819
neural -0.281535 0.255402 -0.0534784 -0.583014 -0.0205927 0.134083 0.122647 -0.352615 0.29987 0.403474 0.251076 -0.077044 -0.246995 -0.250667 -0.570257 0.350141 -0.124475 -0.39778 0.417856 -0.333348 -0.0735947 0.159972 -0.589776 -0.0740766 0.1895 -0.249445 0.0913201 -0.13575 0.42805 0.177319 -0.39576 0.298839 -0.0969448 0.192333 0.10438 -0.354894 0.450104 -0.366332 -0.348021 -0.123707 0.0579273 -0.210184 -0.539622 0.544814 0.448198 0.309431 0.0399776 -0.257944 0.0150591 0.248514
patterns 0.47779 0.216901 -0.260142 0.318409 0.133467 0.341031 -0.0801856 0.0989909 0.5335 0.0210566 0.456815 0.0600578 -0.0272363 -0.0290828 -0.109956 -0.441212 -0.237864 -0.334315 -0.233607 0.993047 0.259333 0.187794 0.160491 -0.768683 0.188915 0.470273 0.140668 0.160818 -0.347375 -0.200407 -0.272457 0.0176865 -0.688684 0.0455123 -0.185988 -0.0970174 0.146275 0.197396 0.217419 0.335004 -0.328438 -0.311214 0.223838 0.408718 0.128421 -0.0428429 -0.0853457 0.148777 0.259643 -0.417447
computers 0.00903895 0.0732339 0.308815 -0.0896284 -0.25588 0.114785 -0.106199 -0.299024 0.108731 -0.240179 -0.525784 0.000110341 0.506895 -0.0699711 -0.153625 0.506512 0.0423465 0.367233 -0.0638653 -0.000964907 -0.304638 -0.647506 -0.0850296 0.106194 -0.365666 -0.795974 -0.241978 0.339931 -0.226091 -0.20509 -0.74312 -0.153147 -0.0545944 -0.359715 -0.087425 0.186216 0.228263 0.516937 -0.336107 0.391877 0.366679 0.1177 0.692322 0.0633901 0.267001 -0.352561 -0.274277 -0.740336 -0.0773732 -0.277554
are -0.257741 6.24992e-05 0.0468698 -0.115716 0.318574 -0.0575898 0.336352 0.0773838 0.0726748 -0.208144 -0.0354439 -0.462569 -0.656009 0.448627 -0.4239 0.0518043 -0.0342686 -0.203978 0.200056 0.032173 0.407942 -0.00158936 -0.453825 -0.391276 0.0351532 0.0486159 -0.433792 0.0287326 0.778245 -0.0720548 0.34542 -0.321793 -0.156558 0.0977432 -0.368732 -0.471532 0.292676 0.0727856 -0.0159458 -0.242941 0.43808 0.267 -0.0104193 0.0145432 0.0253062 0.626237 -0.0118964 -0.0418491 -0.49554 0.297953
natural 0.137859 0.440505 -0.0232844 -0.529151 -0.0714204 0.21945 -0.0650743 -0.434926 -0.0313541 -0.713472 0.0282792 0.382203 0.624124 0.743322 0.486477 0.114582 -0.36996 0.424471 0.0988058 0.0466909 -0.672931 -0.11621 -0.438632 0.386393 0.452544 -0.119607 -0.180355 0.59463 -0.44573 -0.101847 -0.346096 -0.297466 -0.342333 -0.135299 0.44134 0.101238 0.293021 0.374142 -0.124362 0.568861 -0.152201 0.739314 0.250822 0.0725018 0.387318 0.26005 -0.11568 0.171165 0.201529 0.235058
create -0.0511841 -0.195057 0.519968 0.0278981 -0.361512 0.510193 0.0263596 0.0894309 -0.322738 -0.02971 -0.0353031 -0.100691 0.577173 -0.60818 -0.757591 0.263542 0.674684 0.0467072 -0.114061 -0.242614 0.232781 -0.263823 -0.233377 0.391154 -0.434097 -0.383591 0.0126267 -0.387988 -0.238669 -0.447554 -0.129651 0.161414 0.269659 -0.563572 -0.624744 -0.423346 -0.0573883 -0.109602 0.0359642 0.268651 -0.20653 -0.475916 0.00182164 -0.414422 -0.162576 0.0754945 0.148273 -0.428744 -0.455457 -0.107654
aims 0.230113 0.142685 0.429366 -0.109408 -0.0783958 -0.109375 0.513227 -0.166226 -0.0987221 -0.168227 -0.504339 -0.150381 -0.0372232 0.584295 -0.200229 -0.177587 0.471177 0.147559 -0.239667 0.256199 0.332753 -0.160805 0.27932 0.356049 -0.597381 0.0936994 0.40568 -0.555309 0.039782 0.586979 -0.278733 0.155559 0.173042 -0.361686 0.061409 0.540325 0.684141 -0.156054 0.162215 0.135144 -0.225536 0.145673 0.606313 -0.512288 -0.0565217 -0.798335 -0.0472547 0.193419 -0.0515503 -0.251961
networks 0.341525 0.0658838 0.15172 0.248272 0.359372 -0.0681643 0.682805 0.243612 0.596175 -0.157837 -0.110167 0.528554 -0.130474 0.29216 -0.314162 0.261528 -0.722033 -0.263708 -0.0845891 -0.227182 -0.0659845 0.0862905 -0.123908 0.107523 0.15902 0.189996 0.250982 -0.185205 0.478852 0.176234 0.440283 0.194097 0.332256 0.0526956 -0.22864 0.0677731 0.26231 0.0147049 -0.378573 0.0187875 0.443166 0.0409911 -0.082398 0.12576 0.0800418 0.41997 -0.182316 0.0393066 0.199046 0.740749
biological -0.155628 0.0879455 0.0476938 -0.145308 0.349244 -0.0123471 0.33824 0.215423 -0.000404052 -0.247055 -0.0817202 -0.411195 -0.6275 0.44894 -0.361707 -0.0278037 -0.0849889 -0.196545 0.256357 -0.0606461 0.270479 0.0588838 -0.498135 -0.299255 0.013576 -0.0184675 -0.365721 0.0337441 0.714058 -0.0631489 0.287324 -0.316292 -0.163825 0.106927 -0.331173 -0.506137 0.353751 0.0382802 0.0304692 -0.296227 0.521443 0.150552 -0.114457 0.100942 0.100214 0.690743 0.0295533 -0.194542 -0.503325 0.367322
is 0.0415611 0.538327 -0.498464 0.126115 -0.299821 0.00681127 -0.380463 0.238679 -0.153964 0.359945 0.228347 -0.662206 -0.0385629 -0.103239 0.0942856 -0.44185 -0.311094 -0.142189 0.57386 -0.474908 -0.0806331 -0.325014 0.418925 -0.0758536 0.667779 0.185819 0.149422 -0.218802 0.304624 -0.0304544 0.819898 -0.426398 0.612674 -0.0969936 0.452938 0.131805 -0.287648 -0.279461 -0.110488 -0.337105 -0.264448 0.415396 0.380141 -0.217493 -0.286995 -0.166085 0.466779 -0.217908 -0.0291472 -0.271285
<UNK> -0.0995993 -0.0944076 -0.0637968 -0.0312737 -0.0864392 0.00535827 0.0278919 -0.0702294 0.0311346 0.0930579 -0.0221597 -0.0821991 0.0908528 0.0108039 0.0977129 -0.0683734 -0.0460115 0.018129 -0.0176016 -0.0704317 -0.0302315 0.0610661 -0.0529632 -0.052667 -0.0669344 -0.0252251 -0.0138843 -0.0961756 -0.00411224 0.0190577 0.00688555 -0.0767408 -0.0191057 -0.0660413 0.0129183 0.0698786 0.0975471 0.0372856 -0.0894171 -0.0465651 0.0919086 0.0763336 0.0888629 -0.0059062 0.0279675 -0.0776256 0.00312812 0.0571484 -0.0385105 0.0828707
