inspired 0.588256 0.185025 -0.125818 0.349023 -0.110074 -0.38692 -0.122836 -0.263224 -0.261255 0.214643 0.0937795 -0.417417 -0.355746 0.226822 0.181532 -0.318254 -0.0123441 0.254096 -0.205599 0.281705 0.0196026 0.170111 -0.341139 0.332978 0.0155966 0.167257 0.259017 -0.100269 0.0609613 -0.689708 -0.245425 0.326746 0.00983873 0.324003 0.15242 0.0275544 -0.175433 -0.0947419 -0.11292 0.666269 0.310654 -0.292737 0.249774 0.24371 -0.628641 0.113782 -0.0320934 0.587346 -0.0622121 0.489836
are 0.106779 0.37625 0.224123 -0.652723 0.231677 -0.341083 -0.292769 -0.0216483 -0.132104 -0.250301 0.313157 0.00137684 -0.391235 0.0153776 -0.293929 -0.563632 0.212123 -0.398109 -0.166721 0.310132 0.0601724 0.153234 0.0117374 -0.151337 -0.213754 -0.130777 0.482533 0.0653581 -0.276732 -0.383882 -0.0846402 0.147455 -0.391759 -0.512131 -0.0770762 0.431325 -0.219232 -0.666141 0.190973 0.409689 0.258542 -0.365707 -0.183941 0.438359 -0.247282 0.249815 0.241125 0.0288984 0.0233508 0.306015
networks 0.173724 0.608249 -0.070456 0.531102 -0.225919 0.0725555 -0.0258011 -0.00837706 -0.347366 0.0975791 -0.0189739 -0.496022 -0.307473 0.188065 0.103255 -0.670258 -0.118832 -0.150012 0.430308 -0.089746 0.166224 0.178731 0.111172 0.104505 0.324007 -0.349031 0.381592 -0.0606026 -0.0960278 -0.429852 0.437592 0.460346 0.219033 -0.166661 0.0794833 0.501173 -0.319571 -0.344757 0.21139 0.121487 0.0568597 -0.426006 0.363794 0.26936 0.388155 0.399236 -0.0638797 -0.296752 0.2438 0.379394
subset 0.24752 -0.182301 -0.184364 -0.328638 -0.504306 -0.25518 0.0633436 0.374045 -0.0886417 0.29912 -0.26985 -0.524021 -0.239355 -0.68585 -0.262449 0.633591 -0.244342 -0.512083 0.288912 -0.000823146 0.238677 -0.21148 0.0665384 0.112559 0.169382 0.218486 0.107156 0.397959 0.511693 0.626297 -0.645423 0.0168667 0.500782 0.210455 -0.232168 0.00788836 -0.0677167 -0.181563 0.223522 0.00409114 -0.128993 0.545706 0.000600575 -0.307439 -0.262657 0.73092 0.198816 -0.311319 0.141721 -0.133222
human 0.102285 0.0499061 -0.0264566 0.28521 0.883789 0.36046 -0.470567 -0.450218 -0.120614 0.153725 -0.31009 0.127262 0.158102 -0.664569 -0.0128828 0.26582 0.509616 -0.274492 -0.580794 0.080441 -0.203311 0.0642583 -0.196511 0.245759 0.771619 0.179761 -0.698139 0.273225 0.0771219 0.583699 0.373843 0.216081 -0.395302 -0.249173 -0.126047 -0.610175 0.231935 0.106059 0.120971 0.0938507 0.482267 -0.534187 -0.00194804 0.288189 0.260384 0.414407 -0.213807 -0.18086 -0.398167 -0.219002
understand -0.594582 -0.428363 0.390243 -0.224864 0.0453135 0.348443 -0.839649 -0.288967 0.118566 0.297419 0.212075 0.0676625 0.245162 -0.211605 -0.0124905 0.566018 0.32758 -0.195949 -0.496173 -0.087496 -0.462922 -0.0132924 0.528014 -0.132831 0.0157911 0.133993 -0.660298 -0.311798 0.105978 0.00281016 0.719191 0.388811 -0.0803851 0.203962 -0.126784 -0.150422 0.526585 -0.223938 -0.200724 -0.220129 0.21801 -0.678051 0.0149285 0.164014 0.201611 0.269261 -0.359935 -0.057797 -0.209898 -0.252399
learn 0.176526 0.610077 -0.0298283 0.339019 -0.131798 0.108967 0.0164304 0.233988 -0.206707 -0.198039 -0.271309 0.307863 0.743932 0.519366 -0.0441233 0.427177 -0.222611 -0.261166 -0.0737357 0.430746 0.194937 0.454226 0.135725 0.081516 0.243004 -0.157502 -0.0990962 -0.142967 -0.484932 0.513177 0.429418 -0.261626 -0.217371 -0.195439 -0.130709 0.471981 0.398119 0.442472 0.354425 0.153729 -0.0860504 0.733277 -0.40204 -0.0576534 0.103989 -0.581259 -0.168165 0.344889 -0.0827313 0.131844
of 0.427868 -0.276189 -0.330069 -0.498856 0.0256455 -0.31257 -0.246196 0.0932114 0.209534 -0.100724 0.297431 -0.00289843 -0.259057 -0.519756 0.202628 0.765828 -0.319247 -0.264504 0.1528 -0.0164209 -0.210243 -0.261325 0.0818112 0.645142 -0.202328 0.159252 0.263605 0.278877 0.652324 -0.090345 -0.0832994 -0.0801654 0.476324 -0.108972 0.173517 -0.315146 -0.253839 -0.38417 -0.135971 -0.0442966 0.0785573 0.840104 -0.116538 -0.0789937 0.514401 0.158909 0.507234 0.426699 0.218247 -0.527012
artificial 0.201277 -0.459349 -0.525337 -0.419001 -0.213717 0.201781 0.220498 0.0690169 0.2735 -0.0280141 0.45841 -0.0696698 -0.550781 0.226793 0.0901891 0.29637 -0.442519 0.356362 -0.00127318 -0.415438 -0.0543574 -0.461159 -0.195508 0.87553 -0.270216 0.114935 -0.201582 -0.190212 0.125308 0.537459 0.14679 -0.52419 0.0443893 -0.471421 0.202107 0.0772912 0.0614974 -0.0842014 0.0441629 -0.226032 0.0412309 0.438731 0.456097 0.329789 0.426343 0.136333 0.418353 -0.374875 0.225763 -0.316447
intelligence 0.185267 -0.374457 -0.294872 0.172413 -0.0916526 0.157154 -0.486068 0.25151 0.263728 0.151803 -0.257836 -0.416964 0.0852326 -0.372109 -0.199117 0.474269 -0.0958173 0.354343 -0.35562 -0.191102 -0.342406 -0.548603 -0.175668 -0.000129588 0.0337128 0.405601 -0.157017 0.014198 0.363182 0.89334 -0.366033 -0.164091 0.492669 0.00967952 -0.048594 0.373225 0.606559 -0.0243047 0.255624 0.0335965 -0.0232881 0.303652 -0.00679487 0.249889 -0.145193 0.967957 -0.0866233 -0.233822 0.0497391 -0.558594
deep 0.421314 0.323104 -0.0661127 -0.155791 -0.373242 0.566236 0.434122 0.0127589 0.0352419 0.00518566 0.151742 0.403985 0.213698 0.25857 0.659783 0.477364 -0.566236 -0.444438 -0.0329173 -0.17215 0.375871 0.0879277 -0.465743 -0.308774 0.320014 0.240901 -0.258222 -0.346285 -0.795217 -0.160062 -0.1666 -0.0469296 -0.0400939 -0.132243 -0.204359 -0.310574 0.454285 0.371336 0.442491 -0.124193 -1.15922 0.0721945 -0.127581 -0.222191 0.152199 -0.030107 0.0640198 0.509426 0.448045 0.466425
models 0.159618 0.350177 -0.160806 -0.262042 -0.826565 0.12435 0.527117 -0.135221 0.218452 -0.455715 0.270061 -0.0253192 0.781579 0.319052 -0.225259 -0.127194 -0.304553 0.0566761 -0.00154652 0.321773 0.097791 0.192978 -0.0535507 -0.94104 -0.0850246 -0.10182 0.182658 -0.185658 -0.372307 -0.209842 -0.488804 -0.603828 0.148813 0.538237 0.276374 -0.271938 0.046906 0.160159 -0.446631 -0.131001 -0.126918 -0.0106165 -0.359631 -0.354381 -0.0874257 -0.161505 -0.570016 -0.222914 0.373021 0.325978
data 0.0359344 -0.0500542 -0.138547 0.0583587 0.14436 -0.0495202 0.198851 0.19283 -0.0441021 -0.527908 -0.507992 -0.257884 0.687227 0.359382 -0.778459 0.00247185 0.200448 0.0982543 0.3812 0.0849532 -0.494149 0.22167 -0.354114 0.696356 -0.391352 -0.314208 0.0660766 0.00711265 -0.0288967 0.366564 0.244863 0.254672 -0.326026 -0.446015 0.119287 0.233789 -0.485421 0.53908 -0.178744 -0.303524 0.134812 0.000837956 0.0628251 -0.331068 -0.0576393 -1.01941 -0.222574 0.0890049 -0.331912 0.387083
biological 0.0789916 0.40142 0.240897 -0.616239 0.13835 -0.365099 -0.378774 -0.0303777 -0.0594947 -0.291536 0.236734 -0.270488 -0.367379 0.012529 -0.331105 -0.623709 0.161098 -0.336798 0.0278978 0.26657 0.0372506 0.161495 0.0618941 -0.143032 -0.251503 -0.122039 0.565837 0.0870252 -0.298913 -0.425758 -0.18203 0.137021 -0.383759 -0.485566 -0.0990184 0.468141 -0.121266 -0.560161 0.21727 0.316219 0.21542 -0.418076 -0.262885 0.471034 -0.179726 0.200899 0.263222 0.0562857 -0.000452527 0.165746
can 0.0958532 0.351034 -0.173157 -0.0710401 -0.074659 0.45048 0.379727 0.407187 0.235499 -0.317101 -0.170427 0.757721 0.471083 0.574395 0.399652 0.353378 -0.587343 -0.35871 -0.151011 -0.276969 -0.233343 -0.02973 -0.294102 -0.656646 0.47732 0.0412415 0.0599655 -0.245927 -0.541292 -0.193961 -0.327661 -0.144105 0.255924 -0.0515795 0.151715 0.197745 0.116773 0.292226 -0.0400108 0.14707 -0.639791 0.199646 -0.115491 -0.0229937 0.0461455 -0.417412 0.00613709 0.40392 0.389963 0.10272
aims -0.225394 -0.220752 -0.0899328 -0.227363 0.587566 -0.384704 -0.546969 -0.0960188 0.0029343 0.239452 -0.0263757 0.0580149 -0.335867 -0.465708 -0.102378 0.389775 -0.250021 0.189121 -0.448591 -0.026075 -0.499031 -0.319197 -0.186741 0.202794 -0.0454813 0.457657 0.167194 -0.100175 0.727089 0.109761 0.131202 0.161781 0.1824 -0.582247 0.270751 -0.473089 0.331366 -0.186618 -0.056498 -0.148684 -0.0697512 0.613608 -0.310258 0.258955 0.236862 0.488111 -0.0056347 0.553524 -0.25004 -0.797598
learning 0.116406 0.27178 0.183143 -0.177074 -0.497911 0.0345512 0.18664 -0.169934 -0.422388 0.171772 -0.0930772 -0.0162074 0.364812 0.0111581 -0.0560278 0.372802 0.0952092 -0.719483 0.167983 0.589709 0.797488 0.491494 0.329049 -0.100908 -0.0214186 -0.270101 -0.0117059 -0.135689 -0.197447 0.235828 -0.0171952 -0.29323 0.0835221 0.510894 -0.566012 -0.475195 0.186358 0.178416 0.260555 0.273275 -0.22671 0.597961 -0.041901 -0.680328 -0.112964 0.131068 -0.0590421 -0.0659511 0.245677 0.214124
machines -0.837917 -0.813202 0.0878984 -0.306808 0.574885 -0.464671 0.039062 -0.449505 0.0931893 0.598651 0.0641345 0.255584 -0.29034 -0.37909 -0.160871 -0.347062 0.677025 0.503278 -0.354759 0.0933073 0.0473244 -0.549938 -0.474264 0.170712 -0.212901 0.0228531 0.330269 -0.470379 0.355745 0.0443672 0.184413 -0.18195 0.0584883 -0.360047 0.566339 0.115103 -0.438892 0.0189563 -0.262811 -0.281008 0.0607046 -0.057023 0.0820847 -0.356985 0.0778593 -0.397911 -0.0478587 0.574128 0.0789883 -0.125741
neural 0.547173 -0.0696994 0.0880399 0.194225 -0.237985 -0.333741 -0.279537 -0.200695 -0.176102 0.0216422 0.147926 -0.6709 -0.328528 0.334898 0.203892 -0.408677 0.0243119 0.4043 0.0772246 0.37004 -0.151827 0.221919 -0.253452 0.392943 -0.252408 0.204552 0.210639 0.0014904 -0.053642 -0.774233 -0.370844 0.322443 0.0584915 0.361379 0.0380113 0.081953 -0.0281103 0.0587111 0.00751109 0.524764 0.169315 -0.381935 0.0500208 0.239854 -0.701058 -0.0126087 0.185872 0.584979 0.00924061 0.161542
<UNK> 0.0680375 0.00485743 0.00632129 0.0762124 -0.085094 -0.0639255 0.0299414 -0.0634888 0.0968726 0.0368357 0.0167141 -0.00522121 -0.00365333 0.0474815 -0.0637678 0.0178313 -0.0505935 -0.0083922 0.0202853 -0.0760021 0.0808374 -0.0304908 -0.0912169 -0.0521358 -0.02014 -0.0805019 -0.0556165 0.0499438 0.0919433 -0.0147177 0.0795766 -0.0990547 -0.0703539 0.0790707 0.0882486 -0.072231 0.0734643 -0.0879082 -0.0775589 -0.0501476 -0.0926968 -0.0608924 0.0206822 -0.0470895 -0.0483486 0.06701 0.0367666 0.0873507 -0.0531117 0.0679736
enables -0.525723 -0.0266283 0.375876 0.186769 0.522369 0.238398 -0.489808 -0.0229727 -0.216097 -0.175692 0.0635379 0.365195 0.399173 -0.0397312 0.369615 0.0709631 -0.0594353 0.118055 -0.447295 0.0526347 -0.535657 0.0337286 0.538129 -0.107578 -0.133983 0.462119 -0.600725 -0.419444 0.0515601 -0.16158 0.0616609 -0.0268461 -0.0934674 0.456011 -0.0838082 -0.314849 0.81344 -0.0624154 -0.300261 0.00895463 0.168212 -0.102079 -0.404038 -0.025854 0.137376 0.723574 0.242911 -0.358748 -0.264964 -0.347542
complex 0.123792 0.0863119 -0.0556484 -0.0368551 -0.374836 -0.0836359 0.344856 0.113173 0.0900361 -0.539618 -0.289941 -0.0779755 1.07684 0.407624 -0.707898 -0.0609222 -0.0578751 0.018256 0.158309 0.261933 -0.377652 0.23627 -0.231348 -0.00607094 -0.26216 -0.405336 0.142248 -0.178155 -0.25037 0.285916 -0.0418123 -0.190515 0.0324324 -0.127666 0.259223 0.0914747 -0.401951 0.410778 -0.351773 0.00808684 0.224811 0.00081243 -0.166467 -0.375247 -0.206757 -0.706443 -0.551258 -0.0110953 -0.128411 0.351044
by 0.245312 0.643534 -0.12287 0.575936 -0.145804 0.122927 0.0110826 -0.0524785 -0.300983 0.21814 -0.0959888 -0.369419 -0.278538 0.152386 0.0473924 -0.619058 -0.162039 -0.175791 0.35214 -0.114169 0.212124 0.111068 -0.0238648 0.129119 0.385032 -0.412901 0.369955 -0.126902 0.00607018 -0.350692 0.423491 0.416344 0.241074 -0.160715 0.0197025 0.350017 -0.289148 -0.31014 0.205591 0.255049 0.139825 -0.392094 0.430645 0.288186 0.439807 0.332667 -0.044572 -0.275796 0.2591 0.470303
a 0.2424 -0.338606 -0.428343 -0.421168 -0.749184 0.28114 0.710274 0.223844 0.257995 0.207915 0.28188 -0.241702 -0.543631 -0.315035 -0.178688 0.31091 -0.529013 0.0637271 0.348522 -0.562559 0.180705 -0.523956 -0.160106 0.314404 0.263672 0.280912 -0.370435 0.192028 -0.207424 0.25915 -0.471691 -0.0861693 -0.111926 -0.116986 0.183672 -0.116518 -0.204457 -0.318913 -0.0467365 -0.0324764 -0.538086 0.241687 -0.120597 -0.0885126 0.362854 0.160081 0.093005 -0.396244 0.261672 0.541018
is 0.429226 -0.25981 -0.399611 -0.355229 -0.416173 0.0652668 0.383809 0.0250401 0.263003 -0.168483 0.605246 0.25337 -0.24954 -0.542605 0.666371 0.514753 0.0994433 -0.177691 0.349044 0.168519 -0.0608965 0.0201004 0.30003 0.00205132 -0.377226 0.0444492 -0.033661 0.0362757 -0.103385 -0.423351 0.0337621 -0.261997 0.102173 0.376734 0.0683372 -0.562158 -0.327697 -0.482436 -0.206935 0.0540362 -0.465507 0.326702 -0.384715 -0.571005 0.543072 -0.0160873 0.0993448 0.312626 0.875269 0.227596
machine -0.0545714 0.0279909 0.137065 -0.344748 -0.874294 0.360013 0.988984 -0.102227 -0.0448442 0.258543 0.269853 -0.166441 -0.0786125 -0.409991 -0.0781156 0.0539617 -0.551582 -0.361958 0.486355 -0.0911208 0.591612 -0.22771 -0.0872758 -0.299751 0.499999 0.296542 -0.187102 0.288772 -0.407971 0.129064 -0.759644 0.45245 -0.20165 0.174298 0.0360767 -0.29964 -0.223759 0.0582251 -0.0767702 -0.032231 -0.820688 0.0458452 -0.330779 -0.396645 0.183628 -0.0507262 0.0329381 -0.311171 0.15513 0.791484
from -0.12522 0.433503 0.0881128 0.537665 0.27554 -0.142292 0.153666 0.710549 -0.233622 -0.34528 -0.288379 0.488212 0.310761 0.372383 -0.20399 0.106367 -0.00735231 0.338343 -0.172581 -0.218518 -0.151129 0.100984 0.398977 -0.0972093 0.061921 0.065005 0.177652 0.378838 -0.141398 0.347227 0.477383 0.0264759 -0.36315 -0.473064 -0.253832 0.722598 0.00934693 0.510116 0.0110229 -0.191734 0.207505 0.53487 -0.00905417 0.246251 0.0797001 -0.89843 0.29393 0.418911 -0.00304389 -0.271623
intelligent -0.585523 -0.345124 0.0492621 0.234159 0.322919 -0.11079 -0.429141 -0.449278 0.0740737 0.49191 0.0450989 0.235243 -0.169195 -0.262535 -0.184372 -0.399761 0.381064 0.683834 -0.343944 0.153745 -0.208539 -0.0925909 -0.463059 -0.523774 0.131417 0.25596 0.124306 -0.177713 0.00654445 0.0544136 -0.14383 0.212615 -0.0906047 -0.582847 -0.0886441 -0.545039 0.497145 -0.0774865 -0.0816948 -0.0688475 -0.368856 0.279775 -0.457375 -0.141255 0.00789757 0.651175 -0.613649 0.693792 -0.114691 -0.296131
natural -0.207555 0.039657 0.252293 0.440801 0.50483 0.0721395 -0.183883 -0.163288 -0.375499 -0.365311 -0.156143 0.391043 0.468778 -0.456521 0.292644 0.0615385 -0.182727 -0.565927 0.188563 -0.421611 -0.475092 0.556006 0.19138 -0.113626 0.204158 0.334729 -0.790117 -0.0553707 -0.146712 -0.315577 -0.011044 0.334792 -0.61647 0.610919 -0.315498 -0.617629 0.314868 -0.0801472 -0.272683 0.290408 0.272851 -0.0750448 -0.0372508 -0.0163791 -0.0635815 0.455402 0.271321 -0.820705 -0.52872 -0.0487328
patterns -0.385084 0.0208039 0.0246674 -0.0595613 0.13419 0.208373 0.142516 0.699734 0.11744 -0.494014 -0.414367 0.72511 0.263983 0.492794 -0.359975 0.0474611 -0.0290623 -0.0108428 0.0452265 -0.48979 -0.560066 0.0934421 -0.00987766 -0.396122 0.0383364 0.0332546 0.44226 0.0749053 -0.0411463 -0.141926 -0.332168 0.131481 0.2963 -0.102066 0.246989 0.309374 -0.549366 0.186976 -0.441081 -0.0585255 -0.0776941 0.161776 0.441101 -0.0913935 -0.129144 -0.839231 0.276233 0.339468 -0.0755659 -0.207183
language 0.0615807 -0.087808 0.461795 0.295784 0.234905 -0.00258725 0.112121 -0.0496023 0.476853 0.120863 -0.169315 -0.117753 -0.282372 -0.226667 0.605509 -0.175354 0.192873 0.0463462 0.280857 -0.50055 0.264714 -0.00944261 0.259173 -0.166898 0.282741 -0.0705345 -0.517019 0.388117 0.433405 -0.0554572 0.296655 0.0890429 -0.24265 0.319901 -0.0799803 -0.17561 0.191421 -0.137731 -0.118044 -0.572564 -0.184663 -0.538402 0.144303 0.481447 -0.482948 -0.632421 0.00536434 -0.612079 -0.60208 -0.334118
to -0.478748 -0.517103 0.0614727 -0.329417 0.439552 0.0411798 0.0599721 -0.261164 0.357414 0.321807 0.328117 0.0207034 -0.445634 0.124741 0.306957 -0.0383914 0.325101 0.44379 -0.254314 0.0108584 0.166343 -0.413684 -0.102429 0.469754 -0.224952 -0.00257989 0.0474591 -0.300255 0.483753 0.363425 0.43572 -0.444848 0.0602221 -0.250894 0.445746 0.0938325 -0.0764037 0.117894 0.0454855 -0.364175 0.244097 -0.250227 0.345922 0.226489 0.28246 -0.36577 0.241467 -0.0955324 -0.242136 -0.445282
create -0.271433 -0.757836 0.0902839 0.262366 -0.0111959 0.338403 -0.449845 -0.469982 0.216931 0.256432 0.024624 -0.0568529 0.392467 -0.23162 -0.00151574 -0.386333 0.665634 0.798475 -0.624437 0.103993 0.0774327 -0.616265 -0.413624 -0.0534719 0.0137998 -0.0615774 -0.143715 -0.203458 -0.327325 0.637164 -0.439363 -0.340721 0.285537 -0.0191632 -0.156825 0.2872 0.348791 0.189339 -0.153954 -0.0863875 0.0581041 -0.0101085 0.146157 -0.194278 -0.061724 0.521186 -0.282272 0.252181 0.403022 -0.216782
processing -0.393389 -0.0226012 0.0527188 0.000881862 0.716435 0.305481 -0.215771 -0.0627084 -0.140759 -0.219365 -0.22314 0.14248 -0.27652 0.28961 0.156116 0.346586 -0.242654 -0.0920973 -0.123496 -0.166918 0.192686 0.257063 0.392283 -0.48994 -0.474018 -0.237831 -0.521203 0.0995671 0.00194918 -0.459014 0.521006 -0.150524 0.0413598 0.322474 0.188369 -0.0124485 0.132826 0.736316 0.456446 -0.296432 0.867931 -0.784955 -0.0366611 0.0929643 -0.0508765 0.156318 -0.0793446 -0.510118 -0.660147 -0.0778777
computers 0.119652 0.136544 0.319853 0.532321 0.891412 0.234373 -0.0840133 -0.0923475 0.315881 -0.0238165 -0.271864 -0.105091 -0.0747488 -0.408331 0.570386 -0.313777 0.128186 0.502885 -0.296178 -0.175874 0.0165099 -0.228947 0.157602 -0.200915 0.480146 0.21241 -0.303981 0.422947 0.47753 0.321311 -0.369493 -0.345696 -0.00393471 0.201969 0.105129 -0.394616 0.599441 0.0494741 -0.0158247 0.011062 -0.0279757 -0.114712 -0.280561 0.564336 -0.160605 0.261962 -0.0660374 -0.452179 -0.683918 -0.557971
